<?xml version="1.0"?>
<opencv_storage>
<cascade>
  <stageType>BOOST</stageType>
  <featureType>HAAR</featureType>
  <height>40</height>
  <width>40</width>
  <stageParams>
    <boostType>GAB</boostType>
    <minHitRate>9.9500000476837158e-01</minHitRate>
    <maxFalseAlarm>5.0000000000000000e-01</maxFalseAlarm>
    <weightTrimRate>9.4999999999999996e-01</weightTrimRate>
    <maxDepth>1</maxDepth>
    <maxWeakCount>100</maxWeakCount></stageParams>
  <featureParams>
    <maxCatCount>0</maxCatCount>
    <featSize>1</featSize>
    <mode>BASIC</mode></featureParams>
  <stageNum>15</stageNum>
  <stages>
    <!-- stage 0 -->
    <_>
      <maxWeakCount>2</maxWeakCount>
      <stageThreshold>-4.7245416045188904e-01</stageThreshold>
      <weakClassifiers>
        <_>
          <internalNodes>
            0 -1 19 7.1091301739215851e-02</internalNodes>
          <leafValues>
            2.3999999463558197e-01 -9.7560977935791016e-01</leafValues></_>
        <_>
          <internalNodes>
            0 -1 32 3.3442836720496416e-03</internalNodes>
          <leafValues>
            -7.1245414018630981e-01 7.0697718858718872e-01</leafValues></_></weakClassifiers></_>
    <!-- stage 1 -->
    <_>
      <maxWeakCount>2</maxWeakCount>
      <stageThreshold>-4.6156498789787292e-01</stageThreshold>
      <weakClassifiers>
        <_>
          <internalNodes>
            0 -1 10 2.6922143995761871e-02</internalNodes>
          <leafValues>
            -7.7358490228652954e-01 5.3846156597137451e-01</leafValues></_>
        <_>
          <internalNodes>
            0 -1 11 -2.6859804056584835e-03</internalNodes>
          <leafValues>
            -9.8300033807754517e-01 3.1201991438865662e-01</leafValues></_></weakClassifiers></_>
    <!-- stage 2 -->
    <_>
      <maxWeakCount>4</maxWeakCount>
      <stageThreshold>-1.2602978944778442e+00</stageThreshold>
      <weakClassifiers>
        <_>
          <internalNodes>
            0 -1 14 -2.6342980563640594e-02</internalNodes>
          <leafValues>
            6.7441862821578979e-01 -7.4660634994506836e-01</leafValues></_>
        <_>
          <internalNodes>
            0 -1 42 -2.9793695830448996e-06</internalNodes>
          <leafValues>
            4.8243877291679382e-01 -5.7987689971923828e-01</leafValues></_>
        <_>
          <internalNodes>
            0 -1 35 1.1412068270146847e-02</internalNodes>
          <leafValues>
            -5.3750103712081909e-01 6.2939149141311646e-01</leafValues></_>
        <_>
          <internalNodes>
            0 -1 26 5.7528782635927200e-03</internalNodes>
          <leafValues>
            -4.5862922072410583e-01 6.8017351627349854e-01</leafValues></_></weakClassifiers></_>
    <!-- stage 3 -->
    <_>
      <maxWeakCount>4</maxWeakCount>
      <stageThreshold>-9.9300444126129150e-01</stageThreshold>
      <weakClassifiers>
        <_>
          <internalNodes>
            0 -1 22 2.7370085939764977e-02</internalNodes>
          <leafValues>
            -6.9361704587936401e-01 9.3103450536727905e-01</leafValues></_>
        <_>
          <internalNodes>
            0 -1 21 1.3161367969587445e-03</internalNodes>
          <leafValues>
            -5.5474543571472168e-01 7.0037734508514404e-01</leafValues></_>
        <_>
          <internalNodes>
            0 -1 37 -1.4920547982910648e-05</internalNodes>
          <leafValues>
            6.7266798019409180e-01 -4.7977823019027710e-01</leafValues></_>
        <_>
          <internalNodes>
            0 -1 50 1.8966247444041073e-04</internalNodes>
          <leafValues>
            -4.1730999946594238e-01 7.7205997705459595e-01</leafValues></_></weakClassifiers></_>
    <!-- stage 4 -->
    <_>
      <maxWeakCount>5</maxWeakCount>
      <stageThreshold>-4.3597689270973206e-01</stageThreshold>
      <weakClassifiers>
        <_>
          <internalNodes>
            0 -1 16 1.4502582140266895e-02</internalNodes>
          <leafValues>
            -7.7674418687820435e-01 6.3265305757522583e-01</leafValues></_>
        <_>
          <internalNodes>
            0 -1 47 2.9938942752778530e-03</internalNodes>
          <leafValues>
            -5.2326703071594238e-01 8.5648947954177856e-01</leafValues></_>
        <_>
          <internalNodes>
            0 -1 40 -1.1189777404069901e-02</internalNodes>
          <leafValues>
            8.8386279344558716e-01 -4.7953671216964722e-01</leafValues></_>
        <_>
          <internalNodes>
            0 -1 65 -3.8821180351078510e-04</internalNodes>
          <leafValues>
            -1. 4.5521581172943115e-01</leafValues></_>
        <_>
          <internalNodes>
            0 -1 29 -5.1982020959258080e-03</internalNodes>
          <leafValues>
            9.4603514671325684e-01 -4.7504433989524841e-01</leafValues></_></weakClassifiers></_>
    <!-- stage 5 -->
    <_>
      <maxWeakCount>5</maxWeakCount>
      <stageThreshold>-9.7780215740203857e-01</stageThreshold>
      <weakClassifiers>
        <_>
          <internalNodes>
            0 -1 13 6.5657630562782288e-02</internalNodes>
          <leafValues>
            -7.1179038286209106e-01 7.7142858505249023e-01</leafValues></_>
        <_>
          <internalNodes>
            0 -1 23 -5.8919498696923256e-03</internalNodes>
          <leafValues>
            6.6750383377075195e-01 -5.3114151954650879e-01</leafValues></_>
        <_>
          <internalNodes>
            0 -1 66 -6.1296625062823296e-05</internalNodes>
          <leafValues>
            -8.6731624603271484e-01 3.2279190421104431e-01</leafValues></_>
        <_>
          <internalNodes>
            0 -1 58 7.2055823693517596e-05</internalNodes>
          <leafValues>
            -3.7178960442543030e-01 7.6843875646591187e-01</leafValues></_>
        <_>
          <internalNodes>
            0 -1 61 -3.1881130416877568e-04</internalNodes>
          <leafValues>
            -1. 3.1412747502326965e-01</leafValues></_></weakClassifiers></_>
    <!-- stage 6 -->
    <_>
      <maxWeakCount>4</maxWeakCount>
      <stageThreshold>-1.3199920654296875e+00</stageThreshold>
      <weakClassifiers>
        <_>
          <internalNodes>
            0 -1 53 -5.0350194796919823e-03</internalNodes>
          <leafValues>
            5.0943398475646973e-01 -7.7251183986663818e-01</leafValues></_>
        <_>
          <internalNodes>
            0 -1 12 8.8323693489655852e-04</internalNodes>
          <leafValues>
            -6.7292457818984985e-01 4.5971214771270752e-01</leafValues></_>
        <_>
          <internalNodes>
            0 -1 18 1.1755034938687459e-04</internalNodes>
          <leafValues>
            -5.6641566753387451e-01 5.2897316217422485e-01</leafValues></_>
        <_>
          <internalNodes>
            0 -1 30 -2.6262633502483368e-02</internalNodes>
          <leafValues>
            7.7832454442977905e-01 -4.0352877974510193e-01</leafValues></_></weakClassifiers></_>
    <!-- stage 7 -->
    <_>
      <maxWeakCount>4</maxWeakCount>
      <stageThreshold>-7.7002602815628052e-01</stageThreshold>
      <weakClassifiers>
        <_>
          <internalNodes>
            0 -1 27 7.7567517757415771e-02</internalNodes>
          <leafValues>
            -6.9565218687057495e-01 7.0588237047195435e-01</leafValues></_>
        <_>
          <internalNodes>
            0 -1 60 5.2064820192754269e-04</internalNodes>
          <leafValues>
            4.1690933704376221e-01 -8.0952209234237671e-01</leafValues></_>
        <_>
          <internalNodes>
            0 -1 41 -3.1223291898641037e-06</internalNodes>
          <leafValues>
            4.3998774886131287e-01 -6.3369232416152954e-01</leafValues></_>
        <_>
          <internalNodes>
            0 -1 44 2.2632710170000792e-04</internalNodes>
          <leafValues>
            3.3880740404129028e-01 -9.3127095699310303e-01</leafValues></_></weakClassifiers></_>
    <!-- stage 8 -->
    <_>
      <maxWeakCount>5</maxWeakCount>
      <stageThreshold>-7.4795991182327271e-01</stageThreshold>
      <weakClassifiers>
        <_>
          <internalNodes>
            0 -1 63 -1.2747996952384710e-03</internalNodes>
          <leafValues>
            1. -6.4609050750732422e-01</leafValues></_>
        <_>
          <internalNodes>
            0 -1 15 -2.3478493094444275e-02</internalNodes>
          <leafValues>
            7.0696616172790527e-01 -4.5569768548011780e-01</leafValues></_>
        <_>
          <internalNodes>
            0 -1 0 -1.1637916031759232e-04</internalNodes>
          <leafValues>
            -9.1424310207366943e-01 3.2751339673995972e-01</leafValues></_>
        <_>
          <internalNodes>
            0 -1 7 2.2444585338234901e-03</internalNodes>
          <leafValues>
            -3.6159974336624146e-01 8.1138032674789429e-01</leafValues></_>
        <_>
          <internalNodes>
            0 -1 62 -1.1396303307265043e-05</internalNodes>
          <leafValues>
            -7.0693594217300415e-01 3.8791465759277344e-01</leafValues></_></weakClassifiers></_>
    <!-- stage 9 -->
    <_>
      <maxWeakCount>5</maxWeakCount>
      <stageThreshold>-1.0915457010269165e+00</stageThreshold>
      <weakClassifiers>
        <_>
          <internalNodes>
            0 -1 20 -7.9385392367839813e-02</internalNodes>
          <leafValues>
            8.3999997377395630e-01 -6.5690374374389648e-01</leafValues></_>
        <_>
          <internalNodes>
            0 -1 43 1.1830047151306644e-04</internalNodes>
          <leafValues>
            -5.1838618516921997e-01 5.1459395885467529e-01</leafValues></_>
        <_>
          <internalNodes>
            0 -1 1 1.3732246588915586e-04</internalNodes>
          <leafValues>
            4.0254488587379456e-01 -7.3489999771118164e-01</leafValues></_>
        <_>
          <internalNodes>
            0 -1 17 3.4282411797903478e-04</internalNodes>
          <leafValues>
            -4.9489378929138184e-01 5.4238206148147583e-01</leafValues></_>
        <_>
          <internalNodes>
            0 -1 45 1.2448313646018505e-04</internalNodes>
          <leafValues>
            3.6082676053047180e-01 -8.6118274927139282e-01</leafValues></_></weakClassifiers></_>
    <!-- stage 10 -->
    <_>
      <maxWeakCount>6</maxWeakCount>
      <stageThreshold>-1.3496295213699341e+00</stageThreshold>
      <weakClassifiers>
        <_>
          <internalNodes>
            0 -1 4 -8.4019638597965240e-03</internalNodes>
          <leafValues>
            6.2162160873413086e-01 -7.0044052600860596e-01</leafValues></_>
        <_>
          <internalNodes>
            0 -1 9 -2.4367801845073700e-02</internalNodes>
          <leafValues>
            6.9763273000717163e-01 -4.3197417259216309e-01</leafValues></_>
        <_>
          <internalNodes>
            0 -1 48 -6.8042380735278130e-04</internalNodes>
          <leafValues>
            -8.4294950962066650e-01 3.1696930527687073e-01</leafValues></_>
        <_>
          <internalNodes>
            0 -1 38 -2.3207871709018946e-04</internalNodes>
          <leafValues>
            4.9351882934570313e-01 -4.9028831720352173e-01</leafValues></_>
        <_>
          <internalNodes>
            0 -1 34 -3.4105840313713998e-05</internalNodes>
          <leafValues>
            7.1500551700592041e-01 -3.2381328940391541e-01</leafValues></_>
        <_>
          <internalNodes>
            0 -1 31 -6.9490984082221985e-02</internalNodes>
          <leafValues>
            -7.0388966798782349e-01 3.4145098924636841e-01</leafValues></_></weakClassifiers></_>
    <!-- stage 11 -->
    <_>
      <maxWeakCount>6</maxWeakCount>
      <stageThreshold>-1.0982586145401001e+00</stageThreshold>
      <weakClassifiers>
        <_>
          <internalNodes>
            0 -1 3 -1.4244565740227699e-02</internalNodes>
          <leafValues>
            7.9310345649719238e-01 -6.7659574747085571e-01</leafValues></_>
        <_>
          <internalNodes>
            0 -1 46 -9.0161319822072983e-03</internalNodes>
          <leafValues>
            7.3337519168853760e-01 -3.9391562342643738e-01</leafValues></_>
        <_>
          <internalNodes>
            0 -1 39 -2.0614420645870268e-04</internalNodes>
          <leafValues>
            -7.9010182619094849e-01 3.2227876782417297e-01</leafValues></_>
        <_>
          <internalNodes>
            0 -1 57 4.8081987188197672e-05</internalNodes>
          <leafValues>
            -3.5302415490150452e-01 7.9422521591186523e-01</leafValues></_>
        <_>
          <internalNodes>
            0 -1 2 8.8286248501390219e-04</internalNodes>
          <leafValues>
            5.0664377212524414e-01 -5.0093954801559448e-01</leafValues></_>
        <_>
          <internalNodes>
            0 -1 49 -3.3302953852398787e-06</internalNodes>
          <leafValues>
            6.4651226997375488e-01 -5.0364565849304199e-01</leafValues></_></weakClassifiers></_>
    <!-- stage 12 -->
    <_>
      <maxWeakCount>5</maxWeakCount>
      <stageThreshold>-9.9325656890869141e-01</stageThreshold>
      <weakClassifiers>
        <_>
          <internalNodes>
            0 -1 24 1.6955396858975291e-03</internalNodes>
          <leafValues>
            -6.6956520080566406e-01 5.2941179275512695e-01</leafValues></_>
        <_>
          <internalNodes>
            0 -1 54 1.6595338820479810e-05</internalNodes>
          <leafValues>
            -5.3765201568603516e-01 4.6875691413879395e-01</leafValues></_>
        <_>
          <internalNodes>
            0 -1 5 -2.9940500098746270e-05</internalNodes>
          <leafValues>
            -7.0311844348907471e-01 3.2500997185707092e-01</leafValues></_>
        <_>
          <internalNodes>
            0 -1 33 6.9532832130789757e-03</internalNodes>
          <leafValues>
            -4.0018737316131592e-01 7.1518081426620483e-01</leafValues></_>
        <_>
          <internalNodes>
            0 -1 64 -6.1991697293706238e-05</internalNodes>
          <leafValues>
            -8.0451065301895142e-01 4.2312714457511902e-01</leafValues></_></weakClassifiers></_>
    <!-- stage 13 -->
    <_>
      <maxWeakCount>6</maxWeakCount>
      <stageThreshold>-1.2316331863403320e+00</stageThreshold>
      <weakClassifiers>
        <_>
          <internalNodes>
            0 -1 8 -4.3455469422042370e-03</internalNodes>
          <leafValues>
            7.5999999046325684e-01 -6.4853554964065552e-01</leafValues></_>
        <_>
          <internalNodes>
            0 -1 36 -2.2086014505475760e-03</internalNodes>
          <leafValues>
            7.7073788642883301e-01 -4.0828403830528259e-01</leafValues></_>
        <_>
          <internalNodes>
            0 -1 56 1.1140489368699491e-04</internalNodes>
          <leafValues>
            2.9111120104789734e-01 -9.3899744749069214e-01</leafValues></_>
        <_>
          <internalNodes>
            0 -1 28 -6.0680873692035675e-02</internalNodes>
          <leafValues>
            5.9160143136978149e-01 -3.9923438429832458e-01</leafValues></_>
        <_>
          <internalNodes>
            0 -1 55 1.3110614381730556e-03</internalNodes>
          <leafValues>
            -3.5859274864196777e-01 5.9684741497039795e-01</leafValues></_>
        <_>
          <internalNodes>
            0 -1 25 2.7214025612920523e-04</internalNodes>
          <leafValues>
            2.9190233349800110e-01 -8.7105840444564819e-01</leafValues></_></weakClassifiers></_>
    <!-- stage 14 -->
    <_>
      <maxWeakCount>4</maxWeakCount>
      <stageThreshold>-7.9257160425186157e-01</stageThreshold>
      <weakClassifiers>
        <_>
          <internalNodes>
            0 -1 59 2.3856535553932190e-03</internalNodes>
          <leafValues>
            -6.6101694107055664e-01 7.1428573131561279e-01</leafValues></_>
        <_>
          <internalNodes>
            0 -1 6 7.4754685163497925e-02</internalNodes>
          <leafValues>
            1.9690626859664917e-01 -8.1715440750122070e-01</leafValues></_>
        <_>
          <internalNodes>
            0 -1 51 5.5971266701817513e-03</internalNodes>
          <leafValues>
            -4.6970888972282410e-01 4.9387258291244507e-01</leafValues></_>
        <_>
          <internalNodes>
            0 -1 52 8.4054074250161648e-05</internalNodes>
          <leafValues>
            2.7267816662788391e-01 -8.2233351469039917e-01</leafValues></_></weakClassifiers></_></stages>
  <features>
    <_>
      <rects>
        <_>
          0 0 9 1 -1.</_>
        <_>
          3 0 3 1 3.</_></rects>
      <tilted>0</tilted></_>
    <_>
      <rects>
        <_>
          0 1 9 1 -1.</_>
        <_>
          3 1 3 1 3.</_></rects>
      <tilted>0</tilted></_>
    <_>
      <rects>
        <_>
          0 1 19 24 -1.</_>
        <_>
          0 13 19 12 2.</_></rects>
      <tilted>0</tilted></_>
    <_>
      <rects>
        <_>
          1 8 6 23 -1.</_>
        <_>
          3 8 2 23 3.</_></rects>
      <tilted>0</tilted></_>
    <_>
      <rects>
        <_>
          1 10 6 15 -1.</_>
        <_>
          3 10 2 15 3.</_></rects>
      <tilted>0</tilted></_>
    <_>
      <rects>
        <_>
          1 29 3 6 -1.</_>
        <_>
          1 31 3 2 3.</_></rects>
      <tilted>0</tilted></_>
    <_>
      <rects>
        <_>
          2 0 36 38 -1.</_>
        <_>
          2 0 18 19 2.</_>
        <_>
          20 19 18 19 2.</_></rects>
      <tilted>0</tilted></_>
    <_>
      <rects>
        <_>
          2 19 9 2 -1.</_>
        <_>
          5 19 3 2 3.</_></rects>
      <tilted>0</tilted></_>
    <_>
      <rects>
        <_>
          2 37 26 3 -1.</_>
        <_>
          2 38 26 1 3.</_></rects>
      <tilted>0</tilted></_>
    <_>
      <rects>
        <_>
          3 8 9 28 -1.</_>
        <_>
          6 8 3 28 3.</_></rects>
      <tilted>0</tilted></_>
    <_>
      <rects>
        <_>
          3 14 12 15 -1.</_>
        <_>
          9 14 6 15 2.</_></rects>
      <tilted>0</tilted></_>
    <_>
      <rects>
        <_>
          3 39 34 1 -1.</_>
        <_>
          20 39 17 1 2.</_></rects>
      <tilted>0</tilted></_>
    <_>
      <rects>
        <_>
          4 28 27 1 -1.</_>
        <_>
          13 28 9 1 3.</_></rects>
      <tilted>0</tilted></_>
    <_>
      <rects>
        <_>
          5 10 15 20 -1.</_>
        <_>
          10 10 5 20 3.</_></rects>
      <tilted>0</tilted></_>
    <_>
      <rects>
        <_>
          5 25 14 14 -1.</_>
        <_>
          5 25 7 7 2.</_>
        <_>
          12 32 7 7 2.</_></rects>
      <tilted>0</tilted></_>
    <_>
      <rects>
        <_>
          5 26 14 12 -1.</_>
        <_>
          5 26 7 6 2.</_>
        <_>
          12 32 7 6 2.</_></rects>
      <tilted>0</tilted></_>
    <_>
      <rects>
        <_>
          6 0 12 12 -1.</_>
        <_>
          6 0 6 6 2.</_>
        <_>
          12 6 6 6 2.</_></rects>
      <tilted>0</tilted></_>
    <_>
      <rects>
        <_>
          6 5 20 3 -1.</_>
        <_>
          6 6 20 1 3.</_></rects>
      <tilted>0</tilted></_>
    <_>
      <rects>
        <_>
          7 17 2 9 -1.</_>
        <_>
          8 17 1 9 2.</_></rects>
      <tilted>0</tilted></_>
    <_>
      <rects>
        <_>
          8 0 29 40 -1.</_>
        <_>
          8 20 29 20 2.</_></rects>
      <tilted>0</tilted></_>
    <_>
      <rects>
        <_>
          8 18 24 7 -1.</_>
        <_>
          16 18 8 7 3.</_></rects>
      <tilted>0</tilted></_>
    <_>
      <rects>
        <_>
          8 34 4 6 -1.</_>
        <_>
          8 37 4 3 2.</_></rects>
      <tilted>0</tilted></_>
    <_>
      <rects>
        <_>
          9 16 10 18 -1.</_>
        <_>
          9 16 5 9 2.</_>
        <_>
          14 25 5 9 2.</_></rects>
      <tilted>0</tilted></_>
    <_>
      <rects>
        <_>
          9 33 19 6 -1.</_>
        <_>
          9 35 19 2 3.</_></rects>
      <tilted>0</tilted></_>
    <_>
      <rects>
        <_>
          13 38 4 2 -1.</_>
        <_>
          13 39 4 1 2.</_></rects>
      <tilted>0</tilted></_>
    <_>
      <rects>
        <_>
          14 39 12 1 -1.</_>
        <_>
          18 39 4 1 3.</_></rects>
      <tilted>0</tilted></_>
    <_>
      <rects>
        <_>
          15 9 12 8 -1.</_>
        <_>
          19 9 4 8 3.</_></rects>
      <tilted>0</tilted></_>
    <_>
      <rects>
        <_>
          15 19 15 18 -1.</_>
        <_>
          15 25 15 6 3.</_></rects>
      <tilted>0</tilted></_>
    <_>
      <rects>
        <_>
          16 9 16 24 -1.</_>
        <_>
          16 17 16 8 3.</_></rects>
      <tilted>0</tilted></_>
    <_>
      <rects>
        <_>
          19 19 12 3 -1.</_>
        <_>
          23 19 4 3 3.</_></rects>
      <tilted>0</tilted></_>
    <_>
      <rects>
        <_>
          22 0 16 16 -1.</_>
        <_>
          22 0 8 8 2.</_>
        <_>
          30 8 8 8 2.</_></rects>
      <tilted>0</tilted></_>
    <_>
      <rects>
        <_>
          22 0 12 36 -1.</_>
        <_>
          22 18 12 18 2.</_></rects>
      <tilted>0</tilted></_>
    <_>
      <rects>
        <_>
          22 13 9 5 -1.</_>
        <_>
          25 13 3 5 3.</_></rects>
      <tilted>0</tilted></_>
    <_>
      <rects>
        <_>
          23 12 6 12 -1.</_>
        <_>
          25 12 2 12 3.</_></rects>
      <tilted>0</tilted></_>
    <_>
      <rects>
        <_>
          24 29 2 2 -1.</_>
        <_>
          24 29 1 1 2.</_>
        <_>
          25 30 1 1 2.</_></rects>
      <tilted>0</tilted></_>
    <_>
      <rects>
        <_>
          25 1 3 24 -1.</_>
        <_>
          25 9 3 8 3.</_></rects>
      <tilted>0</tilted></_>
    <_>
      <rects>
        <_>
          25 3 4 6 -1.</_>
        <_>
          25 3 2 3 2.</_>
        <_>
          27 6 2 3 2.</_></rects>
      <tilted>0</tilted></_>
    <_>
      <rects>
        <_>
          25 22 2 2 -1.</_>
        <_>
          25 22 1 1 2.</_>
        <_>
          26 23 1 1 2.</_></rects>
      <tilted>0</tilted></_>
    <_>
      <rects>
        <_>
          25 36 15 3 -1.</_>
        <_>
          25 37 15 1 3.</_></rects>
      <tilted>0</tilted></_>
    <_>
      <rects>
        <_>
          26 0 12 1 -1.</_>
        <_>
          30 0 4 1 3.</_></rects>
      <tilted>0</tilted></_>
    <_>
      <rects>
        <_>
          26 18 12 7 -1.</_>
        <_>
          30 18 4 7 3.</_></rects>
      <tilted>0</tilted></_>
    <_>
      <rects>
        <_>
          26 20 1 2 -1.</_>
        <_>
          26 21 1 1 2.</_></rects>
      <tilted>0</tilted></_>
    <_>
      <rects>
        <_>
          26 24 1 2 -1.</_>
        <_>
          26 25 1 1 2.</_></rects>
      <tilted>0</tilted></_>
    <_>
      <rects>
        <_>
          26 35 2 4 -1.</_>
        <_>
          26 35 1 2 2.</_>
        <_>
          27 37 1 2 2.</_></rects>
      <tilted>0</tilted></_>
    <_>
      <rects>
        <_>
          26 39 8 1 -1.</_>
        <_>
          30 39 4 1 2.</_></rects>
      <tilted>0</tilted></_>
    <_>
      <rects>
        <_>
          27 0 9 1 -1.</_>
        <_>
          30 0 3 1 3.</_></rects>
      <tilted>0</tilted></_>
    <_>
      <rects>
        <_>
          27 5 8 10 -1.</_>
        <_>
          27 5 4 5 2.</_>
        <_>
          31 10 4 5 2.</_></rects>
      <tilted>0</tilted></_>
    <_>
      <rects>
        <_>
          27 20 9 4 -1.</_>
        <_>
          30 20 3 4 3.</_></rects>
      <tilted>0</tilted></_>
    <_>
      <rects>
        <_>
          27 38 12 2 -1.</_>
        <_>
          31 38 4 2 3.</_></rects>
      <tilted>0</tilted></_>
    <_>
      <rects>
        <_>
          28 30 1 2 -1.</_>
        <_>
          28 31 1 1 2.</_></rects>
      <tilted>0</tilted></_>
    <_>
      <rects>
        <_>
          29 16 6 1 -1.</_>
        <_>
          31 16 2 1 3.</_></rects>
      <tilted>0</tilted></_>
    <_>
      <rects>
        <_>
          29 18 8 14 -1.</_>
        <_>
          29 18 4 7 2.</_>
        <_>
          33 25 4 7 2.</_></rects>
      <tilted>0</tilted></_>
    <_>
      <rects>
        <_>
          30 0 10 2 -1.</_>
        <_>
          30 1 10 1 2.</_></rects>
      <tilted>0</tilted></_>
    <_>
      <rects>
        <_>
          31 1 8 12 -1.</_>
        <_>
          31 7 8 6 2.</_></rects>
      <tilted>0</tilted></_>
    <_>
      <rects>
        <_>
          31 16 2 2 -1.</_>
        <_>
          31 16 1 1 2.</_>
        <_>
          32 17 1 1 2.</_></rects>
      <tilted>0</tilted></_>
    <_>
      <rects>
        <_>
          33 8 4 28 -1.</_>
        <_>
          35 8 2 28 2.</_></rects>
      <tilted>0</tilted></_>
    <_>
      <rects>
        <_>
          34 3 6 2 -1.</_>
        <_>
          36 3 2 2 3.</_></rects>
      <tilted>0</tilted></_>
    <_>
      <rects>
        <_>
          35 12 2 2 -1.</_>
        <_>
          35 12 1 1 2.</_>
        <_>
          36 13 1 1 2.</_></rects>
      <tilted>0</tilted></_>
    <_>
      <rects>
        <_>
          35 20 3 1 -1.</_>
        <_>
          36 20 1 1 3.</_></rects>
      <tilted>0</tilted></_>
    <_>
      <rects>
        <_>
          35 23 4 8 -1.</_>
        <_>
          35 23 2 4 2.</_>
        <_>
          37 27 2 4 2.</_></rects>
      <tilted>0</tilted></_>
    <_>
      <rects>
        <_>
          36 1 3 8 -1.</_>
        <_>
          36 5 3 4 2.</_></rects>
      <tilted>0</tilted></_>
    <_>
      <rects>
        <_>
          36 2 4 6 -1.</_>
        <_>
          36 5 4 3 2.</_></rects>
      <tilted>0</tilted></_>
    <_>
      <rects>
        <_>
          36 25 4 14 -1.</_>
        <_>
          38 25 2 14 2.</_></rects>
      <tilted>0</tilted></_>
    <_>
      <rects>
        <_>
          37 24 3 2 -1.</_>
        <_>
          38 24 1 2 3.</_></rects>
      <tilted>0</tilted></_>
    <_>
      <rects>
        <_>
          38 0 2 14 -1.</_>
        <_>
          38 0 1 7 2.</_>
        <_>
          39 7 1 7 2.</_></rects>
      <tilted>0</tilted></_>
    <_>
      <rects>
        <_>
          38 31 2 6 -1.</_>
        <_>
          38 34 2 3 2.</_></rects>
      <tilted>0</tilted></_>
    <_>
      <rects>
        <_>
          39 28 1 9 -1.</_>
        <_>
          39 31 1 3 3.</_></rects>
      <tilted>0</tilted></_></features></cascade>
</opencv_storage>
