<?xml version="1.0"?>
<opencv_storage>
<cascade>
  <stageType>BOOST</stageType>
  <featureType>HAAR</featureType>
  <height>40</height>
  <width>40</width>
  <stageParams>
    <boostType>GAB</boostType>
    <minHitRate>9.9500000476837158e-01</minHitRate>
    <maxFalseAlarm>5.0000000000000000e-01</maxFalseAlarm>
    <weightTrimRate>9.4999999999999996e-01</weightTrimRate>
    <maxDepth>1</maxDepth>
    <maxWeakCount>100</maxWeakCount></stageParams>
  <featureParams>
    <maxCatCount>0</maxCatCount>
    <featSize>1</featSize>
    <mode>BASIC</mode></featureParams>
  <stageNum>15</stageNum>
  <stages>
    <!-- stage 0 -->
    <_>
      <maxWeakCount>3</maxWeakCount>
      <stageThreshold>-9.0890419483184814e-01</stageThreshold>
      <weakClassifiers>
        <_>
          <internalNodes>
            0 -1 35 -6.0133881866931915e-02</internalNodes>
          <leafValues>
            7.8313255310058594e-01 -8.4177213907241821e-01</leafValues></_>
        <_>
          <internalNodes>
            0 -1 45 -6.3635446131229401e-03</internalNodes>
          <leafValues>
            4.7038388252258301e-01 -7.5866484642028809e-01</leafValues></_>
        <_>
          <internalNodes>
            0 -1 31 -2.2948323749005795e-03</internalNodes>
          <leafValues>
            7.8409886360168457e-01 -5.3751593828201294e-01</leafValues></_></weakClassifiers></_>
    <!-- stage 1 -->
    <_>
      <maxWeakCount>3</maxWeakCount>
      <stageThreshold>-1.0769621133804321e+00</stageThreshold>
      <weakClassifiers>
        <_>
          <internalNodes>
            0 -1 52 3.9140611886978149e-02</internalNodes>
          <leafValues>
            -8.5350316762924194e-01 7.8823530673980713e-01</leafValues></_>
        <_>
          <internalNodes>
            0 -1 30 -1.5844760928303003e-03</internalNodes>
          <leafValues>
            6.6829144954681396e-01 -5.8354908227920532e-01</leafValues></_>
        <_>
          <internalNodes>
            0 -1 11 -1.3004834763705730e-03</internalNodes>
          <leafValues>
            -8.4602439403533936e-01 3.6009019613265991e-01</leafValues></_></weakClassifiers></_>
    <!-- stage 2 -->
    <_>
      <maxWeakCount>4</maxWeakCount>
      <stageThreshold>-1.3349682092666626e+00</stageThreshold>
      <weakClassifiers>
        <_>
          <internalNodes>
            0 -1 13 -1.6706366837024689e-01</internalNodes>
          <leafValues>
            6.5517240762710571e-01 -8.2692307233810425e-01</leafValues></_>
        <_>
          <internalNodes>
            0 -1 44 -1.8325092270970345e-02</internalNodes>
          <leafValues>
            5.6851780414581299e-01 -5.7780355215072632e-01</leafValues></_>
        <_>
          <internalNodes>
            0 -1 28 -3.2374819056713022e-06</internalNodes>
          <leafValues>
            5.9745252132415771e-01 -5.3386104106903076e-01</leafValues></_>
        <_>
          <internalNodes>
            0 -1 48 -1.9126666302327067e-05</internalNodes>
          <leafValues>
            6.0361951589584351e-01 -4.4757494330406189e-01</leafValues></_></weakClassifiers></_>
    <!-- stage 3 -->
    <_>
      <maxWeakCount>4</maxWeakCount>
      <stageThreshold>-1.2363256216049194e+00</stageThreshold>
      <weakClassifiers>
        <_>
          <internalNodes>
            0 -1 20 -1.9288516044616699e-01</internalNodes>
          <leafValues>
            7.1428573131561279e-01 -7.9503107070922852e-01</leafValues></_>
        <_>
          <internalNodes>
            0 -1 40 7.1355683030560613e-04</internalNodes>
          <leafValues>
            -5.8305889368057251e-01 7.3444193601608276e-01</leafValues></_>
        <_>
          <internalNodes>
            0 -1 49 -6.8245632573962212e-03</internalNodes>
          <leafValues>
            6.5167605876922607e-01 -6.2852221727371216e-01</leafValues></_>
        <_>
          <internalNodes>
            0 -1 62 6.2694344669580460e-03</internalNodes>
          <leafValues>
            -5.0991165637969971e-01 7.7060788869857788e-01</leafValues></_></weakClassifiers></_>
    <!-- stage 4 -->
    <_>
      <maxWeakCount>4</maxWeakCount>
      <stageThreshold>-1.0154211521148682e+00</stageThreshold>
      <weakClassifiers>
        <_>
          <internalNodes>
            0 -1 12 -9.3361288309097290e-03</internalNodes>
          <leafValues>
            6.2025314569473267e-01 -7.8125000000000000e-01</leafValues></_>
        <_>
          <internalNodes>
            0 -1 33 -2.2002078592777252e-02</internalNodes>
          <leafValues>
            6.9211119413375854e-01 -5.6660372018814087e-01</leafValues></_>
        <_>
          <internalNodes>
            0 -1 46 4.4257601257413626e-04</internalNodes>
          <leafValues>
            -3.9904657006263733e-01 8.9546906948089600e-01</leafValues></_>
        <_>
          <internalNodes>
            0 -1 10 -6.7697250051423907e-04</internalNodes>
          <leafValues>
            7.3147910833358765e-01 -4.6738943457603455e-01</leafValues></_></weakClassifiers></_>
    <!-- stage 5 -->
    <_>
      <maxWeakCount>6</maxWeakCount>
      <stageThreshold>-1.4052214622497559e+00</stageThreshold>
      <weakClassifiers>
        <_>
          <internalNodes>
            0 -1 18 3.1184419989585876e-02</internalNodes>
          <leafValues>
            -7.4233126640319824e-01 5.6164383888244629e-01</leafValues></_>
        <_>
          <internalNodes>
            0 -1 19 2.0306866616010666e-02</internalNodes>
          <leafValues>
            -5.1873385906219482e-01 4.5284643769264221e-01</leafValues></_>
        <_>
          <internalNodes>
            0 -1 3 -2.4269949062727392e-04</internalNodes>
          <leafValues>
            -8.3759802579879761e-01 2.9549023509025574e-01</leafValues></_>
        <_>
          <internalNodes>
            0 -1 34 4.6931141696404666e-05</internalNodes>
          <leafValues>
            -4.8893594741821289e-01 5.4456794261932373e-01</leafValues></_>
        <_>
          <internalNodes>
            0 -1 53 -5.9538041241466999e-03</internalNodes>
          <leafValues>
            6.1220610141754150e-01 -4.7002375125885010e-01</leafValues></_>
        <_>
          <internalNodes>
            0 -1 39 -8.2494225353002548e-03</internalNodes>
          <leafValues>
            6.8142259120941162e-01 -4.5226714015007019e-01</leafValues></_></weakClassifiers></_>
    <!-- stage 6 -->
    <_>
      <maxWeakCount>5</maxWeakCount>
      <stageThreshold>-1.7320890426635742e+00</stageThreshold>
      <weakClassifiers>
        <_>
          <internalNodes>
            0 -1 21 -5.9885019436478615e-03</internalNodes>
          <leafValues>
            4.6666666865348816e-01 -7.8640776872634888e-01</leafValues></_>
        <_>
          <internalNodes>
            0 -1 0 8.6906738579273224e-04</internalNodes>
          <leafValues>
            3.9996159076690674e-01 -7.4233007431030273e-01</leafValues></_>
        <_>
          <internalNodes>
            0 -1 8 -1.6558903735131025e-04</internalNodes>
          <leafValues>
            -7.7901768684387207e-01 3.7676116824150085e-01</leafValues></_>
        <_>
          <internalNodes>
            0 -1 59 -3.6507016047835350e-03</internalNodes>
          <leafValues>
            8.4033012390136719e-01 -3.6129376292228699e-01</leafValues></_>
        <_>
          <internalNodes>
            0 -1 29 1.9745333120226860e-03</internalNodes>
          <leafValues>
            -2.6466357707977295e-01 8.6610269546508789e-01</leafValues></_></weakClassifiers></_>
    <!-- stage 7 -->
    <_>
      <maxWeakCount>4</maxWeakCount>
      <stageThreshold>-8.2805442810058594e-01</stageThreshold>
      <weakClassifiers>
        <_>
          <internalNodes>
            0 -1 16 -7.1153275668621063e-02</internalNodes>
          <leafValues>
            3.7254902720451355e-01 -8.0471378564834595e-01</leafValues></_>
        <_>
          <internalNodes>
            0 -1 63 6.5180327510461211e-04</internalNodes>
          <leafValues>
            1.9394563138484955e-01 -7.6862639188766479e-01</leafValues></_>
        <_>
          <internalNodes>
            0 -1 55 5.9408333618193865e-04</internalNodes>
          <leafValues>
            1.7924843728542328e-01 -9.3686544895172119e-01</leafValues></_>
        <_>
          <internalNodes>
            0 -1 36 -4.9215473234653473e-02</internalNodes>
          <leafValues>
            6.3315606117248535e-01 -3.9653471112251282e-01</leafValues></_></weakClassifiers></_>
    <!-- stage 8 -->
    <_>
      <maxWeakCount>5</maxWeakCount>
      <stageThreshold>-9.3121457099914551e-01</stageThreshold>
      <weakClassifiers>
        <_>
          <internalNodes>
            0 -1 14 -3.8693910837173462e-01</internalNodes>
          <leafValues>
            3.4146341681480408e-01 -7.2239744663238525e-01</leafValues></_>
        <_>
          <internalNodes>
            0 -1 58 -1.1921963596250862e-04</internalNodes>
          <leafValues>
            -8.6337268352508545e-01 1.8274787068367004e-01</leafValues></_>
        <_>
          <internalNodes>
            0 -1 43 -2.0500156097114086e-04</internalNodes>
          <leafValues>
            6.7395532131195068e-01 -4.1404068470001221e-01</leafValues></_>
        <_>
          <internalNodes>
            0 -1 41 2.9178289696574211e-04</internalNodes>
          <leafValues>
            -2.6128935813903809e-01 8.5504668951034546e-01</leafValues></_>
        <_>
          <internalNodes>
            0 -1 32 -7.4955762829631567e-04</internalNodes>
          <leafValues>
            -7.8009581565856934e-01 3.8358113169670105e-01</leafValues></_></weakClassifiers></_>
    <!-- stage 9 -->
    <_>
      <maxWeakCount>4</maxWeakCount>
      <stageThreshold>-1.1830596923828125e+00</stageThreshold>
      <weakClassifiers>
        <_>
          <internalNodes>
            0 -1 15 -2.8550660610198975e-01</internalNodes>
          <leafValues>
            5.5263155698776245e-01 -7.5232195854187012e-01</leafValues></_>
        <_>
          <internalNodes>
            0 -1 42 5.4559316486120224e-03</internalNodes>
          <leafValues>
            -6.4162999391555786e-01 3.5153594613075256e-01</leafValues></_>
        <_>
          <internalNodes>
            0 -1 61 3.3618610352277756e-02</internalNodes>
          <leafValues>
            -3.4383898973464966e-01 7.7529090642929077e-01</leafValues></_>
        <_>
          <internalNodes>
            0 -1 51 3.7629528378602117e-05</internalNodes>
          <leafValues>
            -4.3843463063240051e-01 6.3729655742645264e-01</leafValues></_></weakClassifiers></_>
    <!-- stage 10 -->
    <_>
      <maxWeakCount>4</maxWeakCount>
      <stageThreshold>-1.1401200294494629e+00</stageThreshold>
      <weakClassifiers>
        <_>
          <internalNodes>
            0 -1 4 -1.4935025572776794e-01</internalNodes>
          <leafValues>
            5.0649350881576538e-01 -7.4534159898757935e-01</leafValues></_>
        <_>
          <internalNodes>
            0 -1 64 -2.8458185261115432e-04</internalNodes>
          <leafValues>
            -9.3644261360168457e-01 1.8068592250347137e-01</leafValues></_>
        <_>
          <internalNodes>
            0 -1 9 1.8850003834813833e-03</internalNodes>
          <leafValues>
            2.9655879735946655e-01 -7.7414709329605103e-01</leafValues></_>
        <_>
          <internalNodes>
            0 -1 5 -9.2152261640876532e-04</internalNodes>
          <leafValues>
            -9.6597367525100708e-01 2.4510540068149567e-01</leafValues></_></weakClassifiers></_>
    <!-- stage 11 -->
    <_>
      <maxWeakCount>5</maxWeakCount>
      <stageThreshold>-7.7256715297698975e-01</stageThreshold>
      <weakClassifiers>
        <_>
          <internalNodes>
            0 -1 25 2.2451425902545452e-03</internalNodes>
          <leafValues>
            -6.6570603847503662e-01 5.7692307233810425e-01</leafValues></_>
        <_>
          <internalNodes>
            0 -1 6 9.5000071451067924e-03</internalNodes>
          <leafValues>
            -6.8552911281585693e-01 4.0112996101379395e-01</leafValues></_>
        <_>
          <internalNodes>
            0 -1 22 1.3038791948929429e-03</internalNodes>
          <leafValues>
            -3.8414704799652100e-01 8.0831557512283325e-01</leafValues></_>
        <_>
          <internalNodes>
            0 -1 67 -1.3993096072226763e-03</internalNodes>
          <leafValues>
            -8.6652266979217529e-01 2.8765448927879333e-01</leafValues></_>
        <_>
          <internalNodes>
            0 -1 23 -4.4818245805799961e-04</internalNodes>
          <leafValues>
            7.4267864227294922e-01 -3.1648948788642883e-01</leafValues></_></weakClassifiers></_>
    <!-- stage 12 -->
    <_>
      <maxWeakCount>6</maxWeakCount>
      <stageThreshold>-7.6225769519805908e-01</stageThreshold>
      <weakClassifiers>
        <_>
          <internalNodes>
            0 -1 27 -2.4271396920084953e-02</internalNodes>
          <leafValues>
            4.5945945382118225e-01 -7.2307693958282471e-01</leafValues></_>
        <_>
          <internalNodes>
            0 -1 54 -8.0812395026441664e-05</internalNodes>
          <leafValues>
            -8.8584840297698975e-01 1.9860951602458954e-01</leafValues></_>
        <_>
          <internalNodes>
            0 -1 7 1.7505745636299253e-03</internalNodes>
          <leafValues>
            2.2559805214405060e-01 -8.6310899257659912e-01</leafValues></_>
        <_>
          <internalNodes>
            0 -1 2 1.4227686915546656e-03</internalNodes>
          <leafValues>
            2.3899066448211670e-01 -8.8463789224624634e-01</leafValues></_>
        <_>
          <internalNodes>
            0 -1 38 -2.6913047768175602e-03</internalNodes>
          <leafValues>
            8.7691855430603027e-01 -2.8493764996528625e-01</leafValues></_>
        <_>
          <internalNodes>
            0 -1 37 6.3502381090074778e-04</internalNodes>
          <leafValues>
            -3.7449395656585693e-01 7.0618718862533569e-01</leafValues></_></weakClassifiers></_>
    <!-- stage 13 -->
    <_>
      <maxWeakCount>6</maxWeakCount>
      <stageThreshold>-1.5068879127502441e+00</stageThreshold>
      <weakClassifiers>
        <_>
          <internalNodes>
            0 -1 56 3.4331761300563812e-02</internalNodes>
          <leafValues>
            -7.4125874042510986e-01 9.7345136106014252e-02</leafValues></_>
        <_>
          <internalNodes>
            0 -1 24 -4.4916527258465067e-05</internalNodes>
          <leafValues>
            5.3799629211425781e-01 -4.2045071721076965e-01</leafValues></_>
        <_>
          <internalNodes>
            0 -1 5 8.6149979324545711e-05</internalNodes>
          <leafValues>
            3.4951561689376831e-01 -6.2403470277786255e-01</leafValues></_>
        <_>
          <internalNodes>
            0 -1 26 9.1171401436440647e-05</internalNodes>
          <leafValues>
            -3.0678513646125793e-01 6.6832566261291504e-01</leafValues></_>
        <_>
          <internalNodes>
            0 -1 66 4.8378249630331993e-04</internalNodes>
          <leafValues>
            3.2569798827171326e-01 -7.4703663587570190e-01</leafValues></_>
        <_>
          <internalNodes>
            0 -1 57 1.8708549032453448e-04</internalNodes>
          <leafValues>
            2.5994339585304260e-01 -8.4698289632797241e-01</leafValues></_></weakClassifiers></_>
    <!-- stage 14 -->
    <_>
      <maxWeakCount>6</maxWeakCount>
      <stageThreshold>-1.5271458625793457e+00</stageThreshold>
      <weakClassifiers>
        <_>
          <internalNodes>
            0 -1 50 1.0871368646621704e-01</internalNodes>
          <leafValues>
            -7.1337580680847168e-01 2.7058824896812439e-01</leafValues></_>
        <_>
          <internalNodes>
            0 -1 60 -4.7300927690230310e-05</internalNodes>
          <leafValues>
            -7.5793892145156860e-01 2.2256943583488464e-01</leafValues></_>
        <_>
          <internalNodes>
            0 -1 65 -2.1025205496698618e-03</internalNodes>
          <leafValues>
            -5.2127933502197266e-01 3.4307178854942322e-01</leafValues></_>
        <_>
          <internalNodes>
            0 -1 47 1.7113063950091600e-03</internalNodes>
          <leafValues>
            -5.0776475667953491e-01 3.7651756405830383e-01</leafValues></_>
        <_>
          <internalNodes>
            0 -1 17 -2.6324742066208273e-05</internalNodes>
          <leafValues>
            5.9534096717834473e-01 -3.3150723576545715e-01</leafValues></_>
        <_>
          <internalNodes>
            0 -1 1 -1.4621947775594890e-04</internalNodes>
          <leafValues>
            -7.9629904031753540e-01 3.2421183586120605e-01</leafValues></_></weakClassifiers></_></stages>
  <features>
    <_>
      <rects>
        <_>
          0 0 11 14 -1.</_>
        <_>
          0 7 11 7 2.</_></rects>
      <tilted>0</tilted></_>
    <_>
      <rects>
        <_>
          0 1 1 18 -1.</_>
        <_>
          0 7 1 6 3.</_></rects>
      <tilted>0</tilted></_>
    <_>
      <rects>
        <_>
          0 2 1 15 -1.</_>
        <_>
          0 7 1 5 3.</_></rects>
      <tilted>0</tilted></_>
    <_>
      <rects>
        <_>
          0 3 1 15 -1.</_>
        <_>
          0 8 1 5 3.</_></rects>
      <tilted>0</tilted></_>
    <_>
      <rects>
        <_>
          0 4 30 14 -1.</_>
        <_>
          15 4 15 14 2.</_></rects>
      <tilted>0</tilted></_>
    <_>
      <rects>
        <_>
          0 26 1 12 -1.</_>
        <_>
          0 30 1 4 3.</_></rects>
      <tilted>0</tilted></_>
    <_>
      <rects>
        <_>
          0 32 31 8 -1.</_>
        <_>
          0 36 31 4 2.</_></rects>
      <tilted>0</tilted></_>
    <_>
      <rects>
        <_>
          0 36 12 3 -1.</_>
        <_>
          6 36 6 3 2.</_></rects>
      <tilted>0</tilted></_>
    <_>
      <rects>
        <_>
          1 0 14 1 -1.</_>
        <_>
          8 0 7 1 2.</_></rects>
      <tilted>0</tilted></_>
    <_>
      <rects>
        <_>
          1 39 28 1 -1.</_>
        <_>
          15 39 14 1 2.</_></rects>
      <tilted>0</tilted></_>
    <_>
      <rects>
        <_>
          2 18 6 2 -1.</_>
        <_>
          4 18 2 2 3.</_></rects>
      <tilted>0</tilted></_>
    <_>
      <rects>
        <_>
          2 39 30 1 -1.</_>
        <_>
          17 39 15 1 2.</_></rects>
      <tilted>0</tilted></_>
    <_>
      <rects>
        <_>
          3 16 6 15 -1.</_>
        <_>
          6 16 3 15 2.</_></rects>
      <tilted>0</tilted></_>
    <_>
      <rects>
        <_>
          4 2 36 25 -1.</_>
        <_>
          16 2 12 25 3.</_></rects>
      <tilted>0</tilted></_>
    <_>
      <rects>
        <_>
          4 2 35 36 -1.</_>
        <_>
          4 14 35 12 3.</_></rects>
      <tilted>0</tilted></_>
    <_>
      <rects>
        <_>
          4 3 36 33 -1.</_>
        <_>
          16 3 12 33 3.</_></rects>
      <tilted>0</tilted></_>
    <_>
      <rects>
        <_>
          5 0 24 14 -1.</_>
        <_>
          5 7 24 7 2.</_></rects>
      <tilted>0</tilted></_>
    <_>
      <rects>
        <_>
          5 20 2 2 -1.</_>
        <_>
          5 20 1 1 2.</_>
        <_>
          6 21 1 1 2.</_></rects>
      <tilted>0</tilted></_>
    <_>
      <rects>
        <_>
          6 9 24 10 -1.</_>
        <_>
          6 9 12 5 2.</_>
        <_>
          18 14 12 5 2.</_></rects>
      <tilted>0</tilted></_>
    <_>
      <rects>
        <_>
          6 30 21 10 -1.</_>
        <_>
          6 35 21 5 2.</_></rects>
      <tilted>0</tilted></_>
    <_>
      <rects>
        <_>
          7 3 33 25 -1.</_>
        <_>
          18 3 11 25 3.</_></rects>
      <tilted>0</tilted></_>
    <_>
      <rects>
        <_>
          7 13 4 12 -1.</_>
        <_>
          7 17 4 4 3.</_></rects>
      <tilted>0</tilted></_>
    <_>
      <rects>
        <_>
          7 26 3 9 -1.</_>
        <_>
          8 26 1 9 3.</_></rects>
      <tilted>0</tilted></_>
    <_>
      <rects>
        <_>
          8 22 4 2 -1.</_>
        <_>
          8 22 2 1 2.</_>
        <_>
          10 23 2 1 2.</_></rects>
      <tilted>0</tilted></_>
    <_>
      <rects>
        <_>
          9 19 2 2 -1.</_>
        <_>
          9 19 1 1 2.</_>
        <_>
          10 20 1 1 2.</_></rects>
      <tilted>0</tilted></_>
    <_>
      <rects>
        <_>
          9 21 3 16 -1.</_>
        <_>
          10 21 1 16 3.</_></rects>
      <tilted>0</tilted></_>
    <_>
      <rects>
        <_>
          9 30 2 1 -1.</_>
        <_>
          10 30 1 1 2.</_></rects>
      <tilted>0</tilted></_>
    <_>
      <rects>
        <_>
          10 6 30 2 -1.</_>
        <_>
          20 6 10 2 3.</_></rects>
      <tilted>0</tilted></_>
    <_>
      <rects>
        <_>
          10 27 1 2 -1.</_>
        <_>
          10 28 1 1 2.</_></rects>
      <tilted>0</tilted></_>
    <_>
      <rects>
        <_>
          10 28 6 2 -1.</_>
        <_>
          12 28 2 2 3.</_></rects>
      <tilted>0</tilted></_>
    <_>
      <rects>
        <_>
          11 28 9 1 -1.</_>
        <_>
          14 28 3 1 3.</_></rects>
      <tilted>0</tilted></_>
    <_>
      <rects>
        <_>
          12 28 6 4 -1.</_>
        <_>
          14 28 2 4 3.</_></rects>
      <tilted>0</tilted></_>
    <_>
      <rects>
        <_>
          13 0 18 1 -1.</_>
        <_>
          19 0 6 1 3.</_></rects>
      <tilted>0</tilted></_>
    <_>
      <rects>
        <_>
          13 2 10 23 -1.</_>
        <_>
          18 2 5 23 2.</_></rects>
      <tilted>0</tilted></_>
    <_>
      <rects>
        <_>
          13 31 2 2 -1.</_>
        <_>
          13 31 1 1 2.</_>
        <_>
          14 32 1 1 2.</_></rects>
      <tilted>0</tilted></_>
    <_>
      <rects>
        <_>
          14 0 22 14 -1.</_>
        <_>
          14 7 22 7 2.</_></rects>
      <tilted>0</tilted></_>
    <_>
      <rects>
        <_>
          14 13 24 15 -1.</_>
        <_>
          14 18 24 5 3.</_></rects>
      <tilted>0</tilted></_>
    <_>
      <rects>
        <_>
          15 25 3 12 -1.</_>
        <_>
          16 25 1 12 3.</_></rects>
      <tilted>0</tilted></_>
    <_>
      <rects>
        <_>
          15 25 3 13 -1.</_>
        <_>
          16 25 1 13 3.</_></rects>
      <tilted>0</tilted></_>
    <_>
      <rects>
        <_>
          17 9 10 9 -1.</_>
        <_>
          17 12 10 3 3.</_></rects>
      <tilted>0</tilted></_>
    <_>
      <rects>
        <_>
          17 26 3 12 -1.</_>
        <_>
          18 26 1 12 3.</_></rects>
      <tilted>0</tilted></_>
    <_>
      <rects>
        <_>
          17 29 3 1 -1.</_>
        <_>
          18 29 1 1 3.</_></rects>
      <tilted>0</tilted></_>
    <_>
      <rects>
        <_>
          20 20 4 12 -1.</_>
        <_>
          20 26 4 6 2.</_></rects>
      <tilted>0</tilted></_>
    <_>
      <rects>
        <_>
          20 28 2 4 -1.</_>
        <_>
          20 28 1 2 2.</_>
        <_>
          21 30 1 2 2.</_></rects>
      <tilted>0</tilted></_>
    <_>
      <rects>
        <_>
          21 0 4 21 -1.</_>
        <_>
          21 7 4 7 3.</_></rects>
      <tilted>0</tilted></_>
    <_>
      <rects>
        <_>
          21 16 18 12 -1.</_>
        <_>
          21 20 18 4 3.</_></rects>
      <tilted>0</tilted></_>
    <_>
      <rects>
        <_>
          21 27 2 6 -1.</_>
        <_>
          21 27 1 3 2.</_>
        <_>
          22 30 1 3 2.</_></rects>
      <tilted>0</tilted></_>
    <_>
      <rects>
        <_>
          23 7 4 14 -1.</_>
        <_>
          23 14 4 7 2.</_></rects>
      <tilted>0</tilted></_>
    <_>
      <rects>
        <_>
          23 11 1 2 -1.</_>
        <_>
          23 12 1 1 2.</_></rects>
      <tilted>0</tilted></_>
    <_>
      <rects>
        <_>
          23 14 5 15 -1.</_>
        <_>
          23 19 5 5 3.</_></rects>
      <tilted>0</tilted></_>
    <_>
      <rects>
        <_>
          25 8 12 28 -1.</_>
        <_>
          25 22 12 14 2.</_></rects>
      <tilted>0</tilted></_>
    <_>
      <rects>
        <_>
          26 18 2 2 -1.</_>
        <_>
          26 18 1 1 2.</_>
        <_>
          27 19 1 1 2.</_></rects>
      <tilted>0</tilted></_>
    <_>
      <rects>
        <_>
          28 2 12 24 -1.</_>
        <_>
          34 2 6 24 2.</_></rects>
      <tilted>0</tilted></_>
    <_>
      <rects>
        <_>
          28 10 12 8 -1.</_>
        <_>
          32 10 4 8 3.</_></rects>
      <tilted>0</tilted></_>
    <_>
      <rects>
        <_>
          29 39 9 1 -1.</_>
        <_>
          32 39 3 1 3.</_></rects>
      <tilted>0</tilted></_>
    <_>
      <rects>
        <_>
          29 39 8 1 -1.</_>
        <_>
          33 39 4 1 2.</_></rects>
      <tilted>0</tilted></_>
    <_>
      <rects>
        <_>
          30 14 7 18 -1.</_>
        <_>
          30 23 7 9 2.</_></rects>
      <tilted>0</tilted></_>
    <_>
      <rects>
        <_>
          30 33 4 6 -1.</_>
        <_>
          30 33 2 3 2.</_>
        <_>
          32 36 2 3 2.</_></rects>
      <tilted>0</tilted></_>
    <_>
      <rects>
        <_>
          30 39 8 1 -1.</_>
        <_>
          34 39 4 1 2.</_></rects>
      <tilted>0</tilted></_>
    <_>
      <rects>
        <_>
          31 4 5 6 -1.</_>
        <_>
          31 6 5 2 3.</_></rects>
      <tilted>0</tilted></_>
    <_>
      <rects>
        <_>
          31 37 6 3 -1.</_>
        <_>
          34 37 3 3 2.</_></rects>
      <tilted>0</tilted></_>
    <_>
      <rects>
        <_>
          32 9 8 20 -1.</_>
        <_>
          36 9 4 20 2.</_></rects>
      <tilted>0</tilted></_>
    <_>
      <rects>
        <_>
          34 12 6 15 -1.</_>
        <_>
          37 12 3 15 2.</_></rects>
      <tilted>0</tilted></_>
    <_>
      <rects>
        <_>
          37 1 2 12 -1.</_>
        <_>
          37 7 2 6 2.</_></rects>
      <tilted>0</tilted></_>
    <_>
      <rects>
        <_>
          39 1 1 6 -1.</_>
        <_>
          39 4 1 3 2.</_></rects>
      <tilted>0</tilted></_>
    <_>
      <rects>
        <_>
          39 3 1 36 -1.</_>
        <_>
          39 15 1 12 3.</_></rects>
      <tilted>0</tilted></_>
    <_>
      <rects>
        <_>
          39 3 1 28 -1.</_>
        <_>
          39 17 1 14 2.</_></rects>
      <tilted>0</tilted></_>
    <_>
      <rects>
        <_>
          39 5 1 15 -1.</_>
        <_>
          39 10 1 5 3.</_></rects>
      <tilted>0</tilted></_></features></cascade>
</opencv_storage>
